digraph Tree {
node [shape=box, fontname="helvetica"] ;
edge [fontname="helvetica"] ;
0 [label="Length of Membership <= 3.591\nsquared_error = 6262.812\nsamples = 350\nvalue = 501.617"] ;
1 [label="Length of Membership <= 2.626\nsquared_error = 3681.612\nsamples = 179\nvalue = 449.79"] ;
0 -> 1 [labeldistance=2.5, labelangle=45, headlabel="True"] ;
2 [label="Time on App <= 11.031\nsquared_error = 3120.135\nsamples = 50\nvalue = 390.151"] ;
1 -> 2 ;
3 [label="Length of Membership <= 1.876\nsquared_error = 1318.394\nsamples = 9\nvalue = 316.957"] ;
2 -> 3 ;
4 [label="Session Length <= 33.252\nsquared_error = 386.597\nsamples = 4\nvalue = 284.729"] ;
3 -> 4 ;
5 [label="Time on Website <= 37.468\nsquared_error = 92.62\nsamples = 2\nvalue = 266.295"] ;
4 -> 5 ;
6 [label="squared_error = 0.0\nsamples = 1\nvalue = 256.671"] ;
5 -> 6 ;
7 [label="squared_error = -0.0\nsamples = 1\nvalue = 275.918"] ;
5 -> 7 ;
8 [label="Time on Website <= 35.907\nsquared_error = 0.947\nsamples = 2\nvalue = 303.163"] ;
4 -> 8 ;
9 [label="squared_error = 0.0\nsamples = 1\nvalue = 302.19"] ;
8 -> 9 ;
10 [label="squared_error = 0.0\nsamples = 1\nvalue = 304.136"] ;
8 -> 10 ;
11 [label="Time on Website <= 36.815\nsquared_error = 568.143\nsamples = 5\nvalue = 342.74"] ;
3 -> 11 ;
12 [label="Time on Website <= 36.251\nsquared_error = 121.735\nsamples = 2\nvalue = 319.561"] ;
11 -> 12 ;
13 [label="squared_error = 0.0\nsamples = 1\nvalue = 308.528"] ;
12 -> 13 ;
14 [label="squared_error = -0.0\nsamples = 1\nvalue = 330.594"] ;
12 -> 14 ;
15 [label="Session Length <= 32.971\nsquared_error = 268.804\nsamples = 3\nvalue = 358.192"] ;
11 -> 15 ;
16 [label="Session Length <= 32.21\nsquared_error = 94.705\nsamples = 2\nvalue = 348.051"] ;
15 -> 16 ;
17 [label="squared_error = 0.0\nsamples = 1\nvalue = 357.783"] ;
16 -> 17 ;
18 [label="squared_error = 0.0\nsamples = 1\nvalue = 338.32"] ;
16 -> 18 ;
19 [label="squared_error = 0.0\nsamples = 1\nvalue = 378.474"] ;
15 -> 19 ;
20 [label="Length of Membership <= 1.295\nsquared_error = 2081.493\nsamples = 41\nvalue = 406.218"] ;
2 -> 20 ;
21 [label="Time on App <= 11.883\nsquared_error = 1305.685\nsamples = 6\nvalue = 337.082"] ;
20 -> 21 ;
22 [label="squared_error = 0.0\nsamples = 1\nvalue = 266.086"] ;
21 -> 22 ;
23 [label="Length of Membership <= 0.619\nsquared_error = 357.125\nsamples = 5\nvalue = 351.281"] ;
21 -> 23 ;
24 [label="squared_error = 0.0\nsamples = 1\nvalue = 314.439"] ;
23 -> 24 ;
25 [label="Time on App <= 12.847\nsquared_error = 22.223\nsamples = 4\nvalue = 360.492"] ;
23 -> 25 ;
26 [label="Time on Website <= 35.536\nsquared_error = 0.016\nsamples = 3\nvalue = 357.771"] ;
25 -> 26 ;
27 [label="squared_error = 0.0\nsamples = 1\nvalue = 357.591"] ;
26 -> 27 ;
28 [label="Length of Membership <= 1.184\nsquared_error = 0.0\nsamples = 2\nvalue = 357.861"] ;
26 -> 28 ;
29 [label="squared_error = 0.0\nsamples = 1\nvalue = 357.864"] ;
28 -> 29 ;
30 [label="squared_error = 0.0\nsamples = 1\nvalue = 357.858"] ;
28 -> 30 ;
31 [label="squared_error = 0.0\nsamples = 1\nvalue = 368.655"] ;
25 -> 31 ;
32 [label="Time on App <= 12.218\nsquared_error = 1254.641\nsamples = 35\nvalue = 418.07"] ;
20 -> 32 ;
33 [label="Session Length <= 33.116\nsquared_error = 1065.527\nsamples = 19\nvalue = 398.512"] ;
32 -> 33 ;
34 [label="Length of Membership <= 2.122\nsquared_error = 710.347\nsamples = 8\nvalue = 370.107"] ;
33 -> 34 ;
35 [label="Length of Membership <= 1.966\nsquared_error = 187.611\nsamples = 3\nvalue = 339.255"] ;
34 -> 35 ;
36 [label="Time on App <= 11.837\nsquared_error = 1.301\nsamples = 2\nvalue = 348.918"] ;
35 -> 36 ;
37 [label="squared_error = 0.0\nsamples = 1\nvalue = 347.777"] ;
36 -> 37 ;
38 [label="squared_error = 0.0\nsamples = 1\nvalue = 350.058"] ;
36 -> 38 ;
39 [label="squared_error = -0.0\nsamples = 1\nvalue = 319.929"] ;
35 -> 39 ;
40 [label="Time on Website <= 37.62\nsquared_error = 110.192\nsamples = 5\nvalue = 388.619"] ;
34 -> 40 ;
41 [label="Length of Membership <= 2.289\nsquared_error = 23.904\nsamples = 4\nvalue = 383.847"] ;
40 -> 41 ;
42 [label="Session Length <= 32.619\nsquared_error = 8.759\nsamples = 2\nvalue = 379.456"] ;
41 -> 42 ;
43 [label="squared_error = 0.0\nsamples = 1\nvalue = 376.497"] ;
42 -> 43 ;
44 [label="squared_error = 0.0\nsamples = 1\nvalue = 382.416"] ;
42 -> 44 ;
45 [label="Length of Membership <= 2.485\nsquared_error = 0.494\nsamples = 2\nvalue = 388.238"] ;
41 -> 45 ;
46 [label="squared_error = 0.0\nsamples = 1\nvalue = 387.535"] ;
45 -> 46 ;
47 [label="squared_error = -0.0\nsamples = 1\nvalue = 388.941"] ;
45 -> 47 ;
48 [label="squared_error = -0.0\nsamples = 1\nvalue = 407.705"] ;
40 -> 48 ;
49 [label="Length of Membership <= 2.106\nsquared_error = 310.277\nsamples = 11\nvalue = 419.17"] ;
33 -> 49 ;
50 [label="Length of Membership <= 1.954\nsquared_error = 14.218\nsamples = 4\nvalue = 404.746"] ;
49 -> 50 ;
51 [label="Length of Membership <= 1.722\nsquared_error = 1.192\nsamples = 2\nvalue = 401.075"] ;
50 -> 51 ;
52 [label="squared_error = 0.0\nsamples = 1\nvalue = 399.984"] ;
51 -> 52 ;
53 [label="squared_error = 0.0\nsamples = 1\nvalue = 402.167"] ;
51 -> 53 ;
54 [label="Time on App <= 11.452\nsquared_error = 0.293\nsamples = 2\nvalue = 408.417"] ;
50 -> 54 ;
55 [label="squared_error = 0.0\nsamples = 1\nvalue = 408.958"] ;
54 -> 55 ;
56 [label="squared_error = 0.0\nsamples = 1\nvalue = 407.876"] ;
54 -> 56 ;
57 [label="Time on App <= 11.311\nsquared_error = 292.632\nsamples = 7\nvalue = 427.413"] ;
49 -> 57 ;
58 [label="Session Length <= 33.37\nsquared_error = 63.61\nsamples = 2\nvalue = 405.396"] ;
57 -> 58 ;
59 [label="squared_error = 0.0\nsamples = 1\nvalue = 413.372"] ;
58 -> 59 ;
60 [label="squared_error = 0.0\nsamples = 1\nvalue = 397.421"] ;
58 -> 60 ;
61 [label="Length of Membership <= 2.375\nsquared_error = 112.792\nsamples = 5\nvalue = 436.219"] ;
57 -> 61 ;
62 [label="Length of Membership <= 2.154\nsquared_error = 18.497\nsamples = 3\nvalue = 428.167"] ;
61 -> 62 ;
63 [label="squared_error = 0.0\nsamples = 1\nvalue = 434.144"] ;
62 -> 63 ;
64 [label="Time on App <= 11.882\nsquared_error = 0.952\nsamples = 2\nvalue = 425.179"] ;
62 -> 64 ;
65 [label="squared_error = 0.0\nsamples = 1\nvalue = 424.203"] ;
64 -> 65 ;
66 [label="squared_error = -0.0\nsamples = 1\nvalue = 426.155"] ;
64 -> 66 ;
67 [label="Length of Membership <= 2.52\nsquared_error = 11.096\nsamples = 2\nvalue = 448.298"] ;
61 -> 67 ;
68 [label="squared_error = 0.0\nsamples = 1\nvalue = 451.629"] ;
67 -> 68 ;
69 [label="squared_error = 0.0\nsamples = 1\nvalue = 444.967"] ;
67 -> 69 ;
70 [label="Time on Website <= 36.896\nsquared_error = 485.638\nsamples = 16\nvalue = 441.294"] ;
32 -> 70 ;
71 [label="Time on Website <= 36.489\nsquared_error = 156.778\nsamples = 8\nvalue = 454.288"] ;
70 -> 71 ;
72 [label="Session Length <= 33.344\nsquared_error = 18.124\nsamples = 4\nvalue = 443.483"] ;
71 -> 72 ;
73 [label="Time on App <= 13.063\nsquared_error = 2.992\nsamples = 3\nvalue = 445.784"] ;
72 -> 73 ;
74 [label="Session Length <= 32.419\nsquared_error = 0.0\nsamples = 2\nvalue = 444.561"] ;
73 -> 74 ;
75 [label="squared_error = 0.0\nsamples = 1\nvalue = 444.546"] ;
74 -> 75 ;
76 [label="squared_error = 0.0\nsamples = 1\nvalue = 444.576"] ;
74 -> 76 ;
77 [label="squared_error = -0.0\nsamples = 1\nvalue = 448.23"] ;
73 -> 77 ;
78 [label="squared_error = -0.0\nsamples = 1\nvalue = 436.581"] ;
72 -> 78 ;
79 [label="Time on Website <= 36.636\nsquared_error = 61.943\nsamples = 4\nvalue = 465.093"] ;
71 -> 79 ;
80 [label="Time on App <= 13.026\nsquared_error = 5.334\nsamples = 2\nvalue = 472.762"] ;
79 -> 80 ;
81 [label="squared_error = 0.0\nsamples = 1\nvalue = 475.072"] ;
80 -> 81 ;
82 [label="squared_error = 0.0\nsamples = 1\nvalue = 470.453"] ;
80 -> 82 ;
83 [label="Length of Membership <= 2.352\nsquared_error = 0.91\nsamples = 2\nvalue = 457.423"] ;
79 -> 83 ;
84 [label="squared_error = 0.0\nsamples = 1\nvalue = 456.47"] ;
83 -> 84 ;
85 [label="squared_error = -0.0\nsamples = 1\nvalue = 458.377"] ;
83 -> 85 ;
86 [label="Time on Website <= 37.403\nsquared_error = 476.809\nsamples = 8\nvalue = 428.3"] ;
70 -> 86 ;
87 [label="Session Length <= 32.078\nsquared_error = 476.387\nsamples = 3\nvalue = 407.146"] ;
86 -> 87 ;
88 [label="squared_error = 0.0\nsamples = 1\nvalue = 376.337"] ;
87 -> 88 ;
89 [label="Time on App <= 12.326\nsquared_error = 2.672\nsamples = 2\nvalue = 422.551"] ;
87 -> 89 ;
90 [label="squared_error = 0.0\nsamples = 1\nvalue = 424.185"] ;
89 -> 90 ;
91 [label="squared_error = 0.0\nsamples = 1\nvalue = 420.916"] ;
89 -> 91 ;
92 [label="Time on App <= 14.19\nsquared_error = 47.484\nsamples = 5\nvalue = 440.992"] ;
86 -> 92 ;
93 [label="Time on Website <= 37.704\nsquared_error = 19.284\nsamples = 4\nvalue = 438.161"] ;
92 -> 93 ;
94 [label="squared_error = 0.0\nsamples = 1\nvalue = 444.582"] ;
93 -> 94 ;
95 [label="Session Length <= 33.81\nsquared_error = 7.388\nsamples = 3\nvalue = 436.021"] ;
93 -> 95 ;
96 [label="Time on App <= 13.522\nsquared_error = 1.637\nsamples = 2\nvalue = 437.795"] ;
95 -> 96 ;
97 [label="squared_error = 0.0\nsamples = 1\nvalue = 436.516"] ;
96 -> 97 ;
98 [label="squared_error = -0.0\nsamples = 1\nvalue = 439.075"] ;
96 -> 98 ;
99 [label="squared_error = 0.0\nsamples = 1\nvalue = 432.472"] ;
95 -> 99 ;
100 [label="squared_error = -0.0\nsamples = 1\nvalue = 452.316"] ;
92 -> 100 ;
101 [label="Time on App <= 11.651\nsquared_error = 1986.281\nsamples = 129\nvalue = 472.906"] ;
1 -> 101 ;
102 [label="Session Length <= 33.592\nsquared_error = 731.41\nsamples = 40\nvalue = 427.71"] ;
101 -> 102 ;
103 [label="Length of Membership <= 2.923\nsquared_error = 568.102\nsamples = 32\nvalue = 420.137"] ;
102 -> 103 ;
104 [label="Time on App <= 10.873\nsquared_error = 366.723\nsamples = 6\nvalue = 390.517"] ;
103 -> 104 ;
105 [label="Time on App <= 10.315\nsquared_error = 88.199\nsamples = 2\nvalue = 366.007"] ;
104 -> 105 ;
106 [label="squared_error = 0.0\nsamples = 1\nvalue = 356.616"] ;
105 -> 106 ;
107 [label="squared_error = 0.0\nsamples = 1\nvalue = 375.398"] ;
105 -> 107 ;
108 [label="Length of Membership <= 2.874\nsquared_error = 55.416\nsamples = 4\nvalue = 402.773"] ;
104 -> 108 ;
109 [label="Length of Membership <= 2.827\nsquared_error = 2.551\nsamples = 3\nvalue = 406.996"] ;
108 -> 109 ;
110 [label="Length of Membership <= 2.782\nsquared_error = 0.291\nsamples = 2\nvalue = 408.081"] ;
109 -> 110 ;
111 [label="squared_error = 0.0\nsamples = 1\nvalue = 408.62"] ;
110 -> 111 ;
112 [label="squared_error = -0.0\nsamples = 1\nvalue = 407.542"] ;
110 -> 112 ;
113 [label="squared_error = 0.0\nsamples = 1\nvalue = 404.825"] ;
109 -> 113 ;
114 [label="squared_error = 0.0\nsamples = 1\nvalue = 390.103"] ;
108 -> 114 ;
115 [label="Time on App <= 10.488\nsquared_error = 365.393\nsamples = 26\nvalue = 426.972"] ;
103 -> 115 ;
116 [label="Session Length <= 33.166\nsquared_error = 74.572\nsamples = 4\nvalue = 398.213"] ;
115 -> 116 ;
117 [label="Time on Website <= 38.7\nsquared_error = 31.198\nsamples = 3\nvalue = 394.083"] ;
116 -> 117 ;
118 [label="Time on Website <= 36.6\nsquared_error = 10.563\nsamples = 2\nvalue = 390.607"] ;
117 -> 118 ;
119 [label="squared_error = 0.0\nsamples = 1\nvalue = 393.857"] ;
118 -> 119 ;
120 [label="squared_error = 0.0\nsamples = 1\nvalue = 387.357"] ;
118 -> 120 ;
121 [label="squared_error = 0.0\nsamples = 1\nvalue = 401.033"] ;
117 -> 121 ;
122 [label="squared_error = -0.0\nsamples = 1\nvalue = 410.603"] ;
116 -> 122 ;
123 [label="Session Length <= 31.605\nsquared_error = 240.54\nsamples = 22\nvalue = 432.201"] ;
115 -> 123 ;
124 [label="Time on App <= 11.097\nsquared_error = 77.196\nsamples = 2\nvalue = 401.284"] ;
123 -> 124 ;
125 [label="squared_error = 0.0\nsamples = 1\nvalue = 410.07"] ;
124 -> 125 ;
126 [label="squared_error = 0.0\nsamples = 1\nvalue = 392.497"] ;
124 -> 126 ;
127 [label="Time on App <= 11.109\nsquared_error = 151.724\nsamples = 20\nvalue = 435.293"] ;
123 -> 127 ;
128 [label="Length of Membership <= 3.251\nsquared_error = 136.432\nsamples = 10\nvalue = 428.607"] ;
127 -> 128 ;
129 [label="Time on App <= 10.8\nsquared_error = 15.585\nsamples = 3\nvalue = 416.867"] ;
128 -> 129 ;
130 [label="squared_error = 0.0\nsamples = 1\nvalue = 422.369"] ;
129 -> 130 ;
131 [label="Time on App <= 11.002\nsquared_error = 0.672\nsamples = 2\nvalue = 414.116"] ;
129 -> 131 ;
132 [label="squared_error = 0.0\nsamples = 1\nvalue = 414.935"] ;
131 -> 132 ;
133 [label="squared_error = -0.0\nsamples = 1\nvalue = 413.296"] ;
131 -> 133 ;
134 [label="Session Length <= 32.399\nsquared_error = 103.829\nsamples = 7\nvalue = 433.639"] ;
128 -> 134 ;
135 [label="Length of Membership <= 3.561\nsquared_error = 64.408\nsamples = 4\nvalue = 426.896"] ;
134 -> 135 ;
136 [label="Length of Membership <= 3.46\nsquared_error = 9.59\nsamples = 3\nvalue = 422.529"] ;
135 -> 136 ;
137 [label="squared_error = 0.0\nsamples = 1\nvalue = 418.15"] ;
136 -> 137 ;
138 [label="Time on Website <= 37.847\nsquared_error = 0.002\nsamples = 2\nvalue = 424.719"] ;
136 -> 138 ;
139 [label="squared_error = 0.0\nsamples = 1\nvalue = 424.675"] ;
138 -> 139 ;
140 [label="squared_error = -0.0\nsamples = 1\nvalue = 424.763"] ;
138 -> 140 ;
141 [label="squared_error = -0.0\nsamples = 1\nvalue = 439.998"] ;
135 -> 141 ;
142 [label="Session Length <= 33.441\nsquared_error = 14.946\nsamples = 3\nvalue = 442.629"] ;
134 -> 142 ;
143 [label="Length of Membership <= 3.449\nsquared_error = 3.227\nsamples = 2\nvalue = 440.1"] ;
142 -> 143 ;
144 [label="squared_error = 0.0\nsamples = 1\nvalue = 438.304"] ;
143 -> 144 ;
145 [label="squared_error = 0.0\nsamples = 1\nvalue = 441.897"] ;
143 -> 145 ;
146 [label="squared_error = -0.0\nsamples = 1\nvalue = 447.688"] ;
142 -> 146 ;
147 [label="Time on Website <= 36.774\nsquared_error = 77.615\nsamples = 10\nvalue = 441.979"] ;
127 -> 147 ;
148 [label="Time on App <= 11.549\nsquared_error = 15.025\nsamples = 2\nvalue = 428.605"] ;
147 -> 148 ;
149 [label="squared_error = 0.0\nsamples = 1\nvalue = 424.729"] ;
148 -> 149 ;
150 [label="squared_error = 0.0\nsamples = 1\nvalue = 432.481"] ;
148 -> 150 ;
151 [label="Length of Membership <= 2.945\nsquared_error = 37.367\nsamples = 8\nvalue = 445.323"] ;
147 -> 151 ;
152 [label="squared_error = 0.0\nsamples = 1\nvalue = 431.618"] ;
151 -> 152 ;
153 [label="Time on App <= 11.611\nsquared_error = 12.041\nsamples = 7\nvalue = 447.28"] ;
151 -> 153 ;
154 [label="Session Length <= 32.073\nsquared_error = 6.008\nsamples = 5\nvalue = 449.032"] ;
153 -> 154 ;
155 [label="squared_error = 0.0\nsamples = 1\nvalue = 445.75"] ;
154 -> 155 ;
156 [label="Time on App <= 11.528\nsquared_error = 4.144\nsamples = 4\nvalue = 449.852"] ;
154 -> 156 ;
157 [label="Time on App <= 11.348\nsquared_error = 0.075\nsamples = 2\nvalue = 451.849"] ;
156 -> 157 ;
158 [label="squared_error = 0.0\nsamples = 1\nvalue = 451.576"] ;
157 -> 158 ;
159 [label="squared_error = 0.0\nsamples = 1\nvalue = 452.123"] ;
157 -> 159 ;
160 [label="Session Length <= 32.682\nsquared_error = 0.236\nsamples = 2\nvalue = 447.855"] ;
156 -> 160 ;
161 [label="squared_error = 0.0\nsamples = 1\nvalue = 447.369"] ;
160 -> 161 ;
162 [label="squared_error = 0.0\nsamples = 1\nvalue = 448.34"] ;
160 -> 162 ;
163 [label="Time on Website <= 38.138\nsquared_error = 0.291\nsamples = 2\nvalue = 442.902"] ;
153 -> 163 ;
164 [label="squared_error = 0.0\nsamples = 1\nvalue = 442.363"] ;
163 -> 164 ;
165 [label="squared_error = 0.0\nsamples = 1\nvalue = 443.442"] ;
163 -> 165 ;
166 [label="Length of Membership <= 3.056\nsquared_error = 237.7\nsamples = 8\nvalue = 458.001"] ;
102 -> 166 ;
167 [label="Session Length <= 34.119\nsquared_error = 63.139\nsamples = 2\nvalue = 434.721"] ;
166 -> 167 ;
168 [label="squared_error = 0.0\nsamples = 1\nvalue = 442.667"] ;
167 -> 168 ;
169 [label="squared_error = 0.0\nsamples = 1\nvalue = 426.775"] ;
167 -> 169 ;
170 [label="Time on App <= 10.588\nsquared_error = 55.023\nsamples = 6\nvalue = 465.761"] ;
166 -> 170 ;
171 [label="squared_error = 0.0\nsamples = 1\nvalue = 453.17"] ;
170 -> 171 ;
172 [label="Time on Website <= 37.562\nsquared_error = 27.978\nsamples = 5\nvalue = 468.279"] ;
170 -> 172 ;
173 [label="Session Length <= 34.521\nsquared_error = 21.817\nsamples = 4\nvalue = 469.901"] ;
172 -> 173 ;
174 [label="Time on App <= 11.064\nsquared_error = 0.161\nsamples = 2\nvalue = 474.131"] ;
173 -> 174 ;
175 [label="squared_error = 0.0\nsamples = 1\nvalue = 473.729"] ;
174 -> 175 ;
176 [label="squared_error = -0.0\nsamples = 1\nvalue = 474.532"] ;
174 -> 176 ;
177 [label="Session Length <= 34.652\nsquared_error = 7.695\nsamples = 2\nvalue = 465.672"] ;
173 -> 177 ;
178 [label="squared_error = 0.0\nsamples = 1\nvalue = 462.898"] ;
177 -> 178 ;
179 [label="squared_error = 0.0\nsamples = 1\nvalue = 468.446"] ;
177 -> 179 ;
180 [label="squared_error = 0.0\nsamples = 1\nvalue = 461.791"] ;
172 -> 180 ;
181 [label="Time on App <= 12.711\nsquared_error = 1219.604\nsamples = 89\nvalue = 493.219"] ;
101 -> 181 ;
182 [label="Session Length <= 33.068\nsquared_error = 769.776\nsamples = 56\nvalue = 477.847"] ;
181 -> 182 ;
183 [label="Length of Membership <= 3.212\nsquared_error = 641.917\nsamples = 30\nvalue = 462.973"] ;
182 -> 183 ;
184 [label="Time on App <= 12.484\nsquared_error = 573.286\nsamples = 15\nvalue = 445.442"] ;
183 -> 184 ;
185 [label="Length of Membership <= 2.879\nsquared_error = 415.039\nsamples = 13\nvalue = 439.777"] ;
184 -> 185 ;
186 [label="Session Length <= 33.048\nsquared_error = 195.407\nsamples = 4\nvalue = 420.804"] ;
185 -> 186 ;
187 [label="Session Length <= 32.704\nsquared_error = 47.007\nsamples = 3\nvalue = 413.497"] ;
186 -> 187 ;
188 [label="Length of Membership <= 2.839\nsquared_error = 0.193\nsamples = 2\nvalue = 408.656"] ;
187 -> 188 ;
189 [label="squared_error = 0.0\nsamples = 1\nvalue = 408.217"] ;
188 -> 189 ;
190 [label="squared_error = 0.0\nsamples = 1\nvalue = 409.095"] ;
188 -> 190 ;
191 [label="squared_error = -0.0\nsamples = 1\nvalue = 423.18"] ;
187 -> 191 ;
192 [label="squared_error = -0.0\nsamples = 1\nvalue = 442.723"] ;
186 -> 192 ;
193 [label="Session Length <= 32.062\nsquared_error = 281.539\nsamples = 9\nvalue = 448.21"] ;
185 -> 193 ;
194 [label="Time on Website <= 35.917\nsquared_error = 69.151\nsamples = 4\nvalue = 433.467"] ;
193 -> 194 ;
195 [label="squared_error = 0.0\nsamples = 1\nvalue = 423.471"] ;
194 -> 195 ;
196 [label="Time on App <= 11.955\nsquared_error = 47.785\nsamples = 3\nvalue = 436.8"] ;
194 -> 196 ;
197 [label="squared_error = 0.0\nsamples = 1\nvalue = 427.199"] ;
196 -> 197 ;
198 [label="Time on App <= 12.279\nsquared_error = 2.551\nsamples = 2\nvalue = 441.6"] ;
196 -> 198 ;
199 [label="squared_error = 0.0\nsamples = 1\nvalue = 443.197"] ;
198 -> 199 ;
200 [label="squared_error = -0.0\nsamples = 1\nvalue = 440.003"] ;
198 -> 200 ;
201 [label="Length of Membership <= 2.98\nsquared_error = 138.468\nsamples = 5\nvalue = 460.004"] ;
193 -> 201 ;
202 [label="squared_error = 0.0\nsamples = 1\nvalue = 438.418"] ;
201 -> 202 ;
203 [label="Session Length <= 32.342\nsquared_error = 27.466\nsamples = 4\nvalue = 465.401"] ;
201 -> 203 ;
204 [label="Time on Website <= 36.063\nsquared_error = 7.945\nsamples = 2\nvalue = 460.666"] ;
203 -> 204 ;
205 [label="squared_error = 0.0\nsamples = 1\nvalue = 457.848"] ;
204 -> 205 ;
206 [label="squared_error = -0.0\nsamples = 1\nvalue = 463.485"] ;
204 -> 206 ;
207 [label="Time on App <= 11.946\nsquared_error = 2.153\nsamples = 2\nvalue = 470.136"] ;
203 -> 207 ;
208 [label="squared_error = 0.0\nsamples = 1\nvalue = 468.668"] ;
207 -> 208 ;
209 [label="squared_error = 0.0\nsamples = 1\nvalue = 471.603"] ;
207 -> 209 ;
210 [label="Time on App <= 12.548\nsquared_error = 37.505\nsamples = 2\nvalue = 482.263"] ;
184 -> 210 ;
211 [label="squared_error = 0.0\nsamples = 1\nvalue = 488.388"] ;
210 -> 211 ;
212 [label="squared_error = -0.0\nsamples = 1\nvalue = 476.139"] ;
210 -> 212 ;
213 [label="Length of Membership <= 3.378\nsquared_error = 95.904\nsamples = 15\nvalue = 480.503"] ;
183 -> 213 ;
214 [label="Time on App <= 12.213\nsquared_error = 60.873\nsamples = 6\nvalue = 473.582"] ;
213 -> 214 ;
215 [label="squared_error = 0.0\nsamples = 1\nvalue = 459.285"] ;
214 -> 215 ;
216 [label="Session Length <= 32.579\nsquared_error = 23.992\nsamples = 5\nvalue = 476.441"] ;
214 -> 216 ;
217 [label="Time on Website <= 36.066\nsquared_error = 12.281\nsamples = 4\nvalue = 478.323"] ;
216 -> 217 ;
218 [label="squared_error = 0.0\nsamples = 1\nvalue = 472.992"] ;
217 -> 218 ;
219 [label="Session Length <= 32.262\nsquared_error = 3.744\nsamples = 3\nvalue = 480.1"] ;
217 -> 219 ;
220 [label="Time on Website <= 37.956\nsquared_error = 0.023\nsamples = 2\nvalue = 478.735"] ;
219 -> 220 ;
221 [label="squared_error = 0.0\nsamples = 1\nvalue = 478.584"] ;
220 -> 221 ;
222 [label="squared_error = -0.0\nsamples = 1\nvalue = 478.885"] ;
220 -> 222 ;
223 [label="squared_error = -0.0\nsamples = 1\nvalue = 482.831"] ;
219 -> 223 ;
224 [label="squared_error = -0.0\nsamples = 1\nvalue = 468.914"] ;
216 -> 224 ;
225 [label="Time on Website <= 35.956\nsquared_error = 66.028\nsamples = 9\nvalue = 485.118"] ;
213 -> 225 ;
226 [label="squared_error = 0.0\nsamples = 1\nvalue = 497.39"] ;
225 -> 226 ;
227 [label="Time on Website <= 36.52\nsquared_error = 53.104\nsamples = 8\nvalue = 483.584"] ;
225 -> 227 ;
228 [label="squared_error = 0.0\nsamples = 1\nvalue = 469.311"] ;
227 -> 228 ;
229 [label="Session Length <= 32.817\nsquared_error = 27.431\nsamples = 7\nvalue = 485.623"] ;
227 -> 229 ;
230 [label="Length of Membership <= 3.529\nsquared_error = 8.355\nsamples = 6\nvalue = 483.785"] ;
229 -> 230 ;
231 [label="Time on App <= 12.139\nsquared_error = 3.142\nsamples = 4\nvalue = 482.069"] ;
230 -> 231 ;
232 [label="Length of Membership <= 3.516\nsquared_error = 0.463\nsamples = 3\nvalue = 483.034"] ;
231 -> 232 ;
233 [label="Length of Membership <= 3.461\nsquared_error = 0.101\nsamples = 2\nvalue = 483.478"] ;
232 -> 233 ;
234 [label="squared_error = 0.0\nsamples = 1\nvalue = 483.16"] ;
233 -> 234 ;
235 [label="squared_error = 0.0\nsamples = 1\nvalue = 483.797"] ;
233 -> 235 ;
236 [label="squared_error = 0.0\nsamples = 1\nvalue = 482.145"] ;
232 -> 236 ;
237 [label="squared_error = 0.0\nsamples = 1\nvalue = 479.173"] ;
231 -> 237 ;
238 [label="Time on Website <= 36.677\nsquared_error = 1.109\nsamples = 2\nvalue = 487.217"] ;
230 -> 238 ;
239 [label="squared_error = 0.0\nsamples = 1\nvalue = 486.164"] ;
238 -> 239 ;
240 [label="squared_error = -0.0\nsamples = 1\nvalue = 488.27"] ;
238 -> 240 ;
241 [label="squared_error = 0.0\nsamples = 1\nvalue = 496.651"] ;
229 -> 241 ;
242 [label="Session Length <= 34.536\nsquared_error = 367.449\nsamples = 26\nvalue = 495.01"] ;
182 -> 242 ;
243 [label="Length of Membership <= 3.205\nsquared_error = 150.347\nsamples = 23\nvalue = 489.528"] ;
242 -> 243 ;
244 [label="Time on App <= 11.859\nsquared_error = 110.25\nsamples = 16\nvalue = 485.401"] ;
243 -> 244 ;
245 [label="squared_error = 0.0\nsamples = 1\nvalue = 461.628"] ;
244 -> 245 ;
246 [label="Length of Membership <= 3.101\nsquared_error = 77.413\nsamples = 15\nvalue = 486.986"] ;
244 -> 246 ;
247 [label="Length of Membership <= 2.937\nsquared_error = 47.015\nsamples = 12\nvalue = 489.993"] ;
246 -> 247 ;
248 [label="Time on Website <= 38.582\nsquared_error = 54.479\nsamples = 7\nvalue = 486.903"] ;
247 -> 248 ;
249 [label="Time on Website <= 35.936\nsquared_error = 40.42\nsamples = 6\nvalue = 485.085"] ;
248 -> 249 ;
250 [label="squared_error = 0.0\nsamples = 1\nvalue = 497.779"] ;
249 -> 250 ;
251 [label="Length of Membership <= 2.717\nsquared_error = 9.833\nsamples = 5\nvalue = 482.546"] ;
249 -> 251 ;
252 [label="Session Length <= 33.587\nsquared_error = 2.044\nsamples = 2\nvalue = 485.95"] ;
251 -> 252 ;
253 [label="squared_error = 0.0\nsamples = 1\nvalue = 484.52"] ;
252 -> 253 ;
254 [label="squared_error = -0.0\nsamples = 1\nvalue = 487.379"] ;
252 -> 254 ;
255 [label="Time on Website <= 36.401\nsquared_error = 2.155\nsamples = 3\nvalue = 480.277"] ;
251 -> 255 ;
256 [label="squared_error = 0.0\nsamples = 1\nvalue = 482.354"] ;
255 -> 256 ;
257 [label="Time on Website <= 36.95\nsquared_error = 0.0\nsamples = 2\nvalue = 479.239"] ;
255 -> 257 ;
258 [label="squared_error = 0.0\nsamples = 1\nvalue = 479.231"] ;
257 -> 258 ;
259 [label="squared_error = 0.0\nsamples = 1\nvalue = 479.247"] ;
257 -> 259 ;
260 [label="squared_error = 0.0\nsamples = 1\nvalue = 497.812"] ;
248 -> 260 ;
261 [label="Time on Website <= 36.213\nsquared_error = 4.494\nsamples = 5\nvalue = 494.318"] ;
247 -> 261 ;
262 [label="Time on App <= 12.195\nsquared_error = 1.308\nsamples = 2\nvalue = 496.443"] ;
261 -> 262 ;
263 [label="squared_error = 0.0\nsamples = 1\nvalue = 495.299"] ;
262 -> 263 ;
264 [label="squared_error = 0.0\nsamples = 1\nvalue = 497.587"] ;
262 -> 264 ;
265 [label="Session Length <= 34.142\nsquared_error = 1.601\nsamples = 3\nvalue = 492.901"] ;
261 -> 265 ;
266 [label="Time on Website <= 36.419\nsquared_error = 1.667\nsamples = 2\nvalue = 493.396"] ;
265 -> 266 ;
267 [label="squared_error = 0.0\nsamples = 1\nvalue = 492.105"] ;
266 -> 267 ;
268 [label="squared_error = 0.0\nsamples = 1\nvalue = 494.687"] ;
266 -> 268 ;
269 [label="squared_error = -0.0\nsamples = 1\nvalue = 491.912"] ;
265 -> 269 ;
270 [label="Time on Website <= 37.887\nsquared_error = 18.17\nsamples = 3\nvalue = 474.958"] ;
246 -> 270 ;
271 [label="Length of Membership <= 3.184\nsquared_error = 3.946\nsamples = 2\nvalue = 477.746"] ;
270 -> 271 ;
272 [label="squared_error = 0.0\nsamples = 1\nvalue = 475.759"] ;
271 -> 272 ;
273 [label="squared_error = 0.0\nsamples = 1\nvalue = 479.732"] ;
271 -> 273 ;
274 [label="squared_error = 0.0\nsamples = 1\nvalue = 469.383"] ;
270 -> 274 ;
275 [label="Time on App <= 11.826\nsquared_error = 114.079\nsamples = 7\nvalue = 498.961"] ;
243 -> 275 ;
276 [label="Session Length <= 33.159\nsquared_error = 16.126\nsamples = 2\nvalue = 483.631"] ;
275 -> 276 ;
277 [label="squared_error = 0.0\nsamples = 1\nvalue = 487.646"] ;
276 -> 277 ;
278 [label="squared_error = -0.0\nsamples = 1\nvalue = 479.615"] ;
276 -> 278 ;
279 [label="Time on App <= 11.931\nsquared_error = 21.642\nsamples = 5\nvalue = 505.094"] ;
275 -> 279 ;
280 [label="Length of Membership <= 3.292\nsquared_error = 3.058\nsamples = 2\nvalue = 500.384"] ;
279 -> 280 ;
281 [label="squared_error = 0.0\nsamples = 1\nvalue = 498.636"] ;
280 -> 281 ;
282 [label="squared_error = 0.0\nsamples = 1\nvalue = 502.133"] ;
280 -> 282 ;
283 [label="Session Length <= 33.825\nsquared_error = 9.389\nsamples = 3\nvalue = 508.233"] ;
279 -> 283 ;
284 [label="Time on Website <= 36.518\nsquared_error = 0.091\nsamples = 2\nvalue = 506.074"] ;
283 -> 284 ;
285 [label="squared_error = 0.0\nsamples = 1\nvalue = 506.376"] ;
284 -> 285 ;
286 [label="squared_error = 0.0\nsamples = 1\nvalue = 505.771"] ;
284 -> 286 ;
287 [label="squared_error = 0.0\nsamples = 1\nvalue = 512.553"] ;
283 -> 287 ;
288 [label="Length of Membership <= 3.443\nsquared_error = 34.865\nsamples = 3\nvalue = 537.041"] ;
242 -> 288 ;
289 [label="Time on Website <= 36.728\nsquared_error = 4.39\nsamples = 2\nvalue = 541.037"] ;
288 -> 289 ;
290 [label="squared_error = 0.0\nsamples = 1\nvalue = 538.942"] ;
289 -> 290 ;
291 [label="squared_error = -0.0\nsamples = 1\nvalue = 543.133"] ;
289 -> 291 ;
292 [label="squared_error = -0.0\nsamples = 1\nvalue = 529.049"] ;
288 -> 292 ;
293 [label="Session Length <= 32.75\nsquared_error = 901.599\nsamples = 33\nvalue = 519.303"] ;
181 -> 293 ;
294 [label="Session Length <= 32.11\nsquared_error = 333.814\nsamples = 14\nvalue = 494.509"] ;
293 -> 294 ;
295 [label="Length of Membership <= 3.391\nsquared_error = 196.464\nsamples = 6\nvalue = 480.526"] ;
294 -> 295 ;
296 [label="Time on Website <= 37.697\nsquared_error = 29.935\nsamples = 3\nvalue = 468.229"] ;
295 -> 296 ;
297 [label="Time on Website <= 36.757\nsquared_error = 7.787\nsamples = 2\nvalue = 464.711"] ;
296 -> 297 ;
298 [label="squared_error = 0.0\nsamples = 1\nvalue = 467.502"] ;
297 -> 298 ;
299 [label="squared_error = 0.0\nsamples = 1\nvalue = 461.921"] ;
297 -> 299 ;
300 [label="squared_error = -0.0\nsamples = 1\nvalue = 475.263"] ;
296 -> 300 ;
301 [label="Time on Website <= 36.568\nsquared_error = 60.534\nsamples = 3\nvalue = 492.824"] ;
295 -> 301 ;
302 [label="squared_error = 0.0\nsamples = 1\nvalue = 503.388"] ;
301 -> 302 ;
303 [label="Time on App <= 13.063\nsquared_error = 7.101\nsamples = 2\nvalue = 487.542"] ;
301 -> 303 ;
304 [label="squared_error = 0.0\nsamples = 1\nvalue = 484.877"] ;
303 -> 304 ;
305 [label="squared_error = -0.0\nsamples = 1\nvalue = 490.207"] ;
303 -> 305 ;
306 [label="Time on App <= 13.581\nsquared_error = 180.199\nsamples = 8\nvalue = 504.997"] ;
294 -> 306 ;
307 [label="Length of Membership <= 3.041\nsquared_error = 100.892\nsamples = 7\nvalue = 501.373"] ;
306 -> 307 ;
308 [label="Session Length <= 32.417\nsquared_error = 8.03\nsamples = 3\nvalue = 490.544"] ;
307 -> 308 ;
309 [label="squared_error = 0.0\nsamples = 1\nvalue = 486.839"] ;
308 -> 309 ;
310 [label="Time on Website <= 38.279\nsquared_error = 1.75\nsamples = 2\nvalue = 492.396"] ;
308 -> 310 ;
311 [label="squared_error = 0.0\nsamples = 1\nvalue = 493.719"] ;
310 -> 311 ;
312 [label="squared_error = -0.0\nsamples = 1\nvalue = 491.073"] ;
310 -> 312 ;
313 [label="Session Length <= 32.487\nsquared_error = 16.622\nsamples = 4\nvalue = 509.495"] ;
307 -> 313 ;
314 [label="Session Length <= 32.405\nsquared_error = 13.103\nsamples = 3\nvalue = 507.99"] ;
313 -> 314 ;
315 [label="Length of Membership <= 3.284\nsquared_error = 2.573\nsamples = 2\nvalue = 510.376"] ;
314 -> 315 ;
316 [label="squared_error = 0.0\nsamples = 1\nvalue = 511.98"] ;
315 -> 316 ;
317 [label="squared_error = 0.0\nsamples = 1\nvalue = 508.772"] ;
315 -> 317 ;
318 [label="squared_error = 0.0\nsamples = 1\nvalue = 503.217"] ;
314 -> 318 ;
319 [label="squared_error = -0.0\nsamples = 1\nvalue = 514.01"] ;
313 -> 319 ;
320 [label="squared_error = 0.0\nsamples = 1\nvalue = 530.362"] ;
306 -> 320 ;
321 [label="Length of Membership <= 3.031\nsquared_error = 533.252\nsamples = 19\nvalue = 537.572"] ;
293 -> 321 ;
322 [label="Time on App <= 13.518\nsquared_error = 172.144\nsamples = 6\nvalue = 510.291"] ;
321 -> 322 ;
323 [label="Time on App <= 13.123\nsquared_error = 48.38\nsamples = 4\nvalue = 501.973"] ;
322 -> 323 ;
324 [label="Time on App <= 13.06\nsquared_error = 4.695\nsamples = 2\nvalue = 495.347"] ;
323 -> 324 ;
325 [label="squared_error = 0.0\nsamples = 1\nvalue = 493.18"] ;
324 -> 325 ;
326 [label="squared_error = 0.0\nsamples = 1\nvalue = 497.514"] ;
324 -> 326 ;
327 [label="Time on Website <= 37.187\nsquared_error = 4.255\nsamples = 2\nvalue = 508.599"] ;
323 -> 327 ;
328 [label="squared_error = 0.0\nsamples = 1\nvalue = 506.536"] ;
327 -> 328 ;
329 [label="squared_error = -0.0\nsamples = 1\nvalue = 510.662"] ;
327 -> 329 ;
330 [label="Length of Membership <= 2.796\nsquared_error = 4.535\nsamples = 2\nvalue = 526.927"] ;
322 -> 330 ;
331 [label="squared_error = 0.0\nsamples = 1\nvalue = 529.057"] ;
330 -> 331 ;
332 [label="squared_error = 0.0\nsamples = 1\nvalue = 524.798"] ;
330 -> 332 ;
333 [label="Session Length <= 34.078\nsquared_error = 197.876\nsamples = 13\nvalue = 550.163"] ;
321 -> 333 ;
334 [label="Time on App <= 12.848\nsquared_error = 42.354\nsamples = 9\nvalue = 543.128"] ;
333 -> 334 ;
335 [label="squared_error = 0.0\nsamples = 1\nvalue = 527.784"] ;
334 -> 335 ;
336 [label="Time on App <= 13.423\nsquared_error = 14.54\nsamples = 8\nvalue = 545.046"] ;
334 -> 336 ;
337 [label="Session Length <= 34.01\nsquared_error = 8.596\nsamples = 6\nvalue = 543.424"] ;
336 -> 337 ;
338 [label="Time on App <= 12.965\nsquared_error = 5.906\nsamples = 5\nvalue = 542.567"] ;
337 -> 338 ;
339 [label="Time on Website <= 38.304\nsquared_error = 9.595\nsamples = 2\nvalue = 544.093"] ;
338 -> 339 ;
340 [label="squared_error = 0.0\nsamples = 1\nvalue = 547.191"] ;
339 -> 340 ;
341 [label="squared_error = 0.0\nsamples = 1\nvalue = 540.996"] ;
339 -> 341 ;
342 [label="Session Length <= 32.874\nsquared_error = 0.859\nsamples = 3\nvalue = 541.549"] ;
338 -> 342 ;
343 [label="squared_error = 0.0\nsamples = 1\nvalue = 540.263"] ;
342 -> 343 ;
344 [label="Time on Website <= 37.57\nsquared_error = 0.048\nsamples = 2\nvalue = 542.192"] ;
342 -> 344 ;
345 [label="squared_error = 0.0\nsamples = 1\nvalue = 542.412"] ;
344 -> 345 ;
346 [label="squared_error = 0.0\nsamples = 1\nvalue = 541.972"] ;
344 -> 346 ;
347 [label="squared_error = -0.0\nsamples = 1\nvalue = 547.71"] ;
337 -> 347 ;
348 [label="Time on App <= 13.492\nsquared_error = 0.815\nsamples = 2\nvalue = 549.911"] ;
336 -> 348 ;
349 [label="squared_error = 0.0\nsamples = 1\nvalue = 549.008"] ;
348 -> 349 ;
350 [label="squared_error = -0.0\nsamples = 1\nvalue = 550.813"] ;
348 -> 350 ;
351 [label="Time on App <= 12.804\nsquared_error = 185.839\nsamples = 4\nvalue = 565.993"] ;
333 -> 351 ;
352 [label="squared_error = 0.0\nsamples = 1\nvalue = 548.28"] ;
351 -> 352 ;
353 [label="Session Length <= 34.224\nsquared_error = 108.342\nsamples = 3\nvalue = 571.898"] ;
351 -> 353 ;
354 [label="squared_error = 0.0\nsamples = 1\nvalue = 557.529"] ;
353 -> 354 ;
355 [label="Length of Membership <= 3.206\nsquared_error = 7.676\nsamples = 2\nvalue = 579.082"] ;
353 -> 355 ;
356 [label="squared_error = 0.0\nsamples = 1\nvalue = 581.852"] ;
355 -> 356 ;
357 [label="squared_error = -0.0\nsamples = 1\nvalue = 576.311"] ;
355 -> 357 ;
358 [label="Length of Membership <= 4.964\nsquared_error = 3209.711\nsamples = 171\nvalue = 555.87"] ;
0 -> 358 [labeldistance=2.5, labelangle=-45, headlabel="False"] ;
359 [label="Time on App <= 12.88\nsquared_error = 2027.039\nsamples = 142\nvalue = 541.745"] ;
358 -> 359 ;
360 [label="Length of Membership <= 3.999\nsquared_error = 1444.898\nsamples = 110\nvalue = 527.818"] ;
359 -> 360 ;
361 [label="Time on App <= 11.405\nsquared_error = 1017.162\nsamples = 41\nvalue = 500.833"] ;
360 -> 361 ;
362 [label="Session Length <= 32.102\nsquared_error = 459.647\nsamples = 13\nvalue = 467.562"] ;
361 -> 362 ;
363 [label="Time on Website <= 37.064\nsquared_error = 48.393\nsamples = 3\nvalue = 440.324"] ;
362 -> 363 ;
364 [label="Time on Website <= 36.355\nsquared_error = 1.504\nsamples = 2\nvalue = 445.192"] ;
363 -> 364 ;
365 [label="squared_error = 0.0\nsamples = 1\nvalue = 446.419"] ;
364 -> 365 ;
366 [label="squared_error = -0.0\nsamples = 1\nvalue = 443.966"] ;
364 -> 366 ;
367 [label="squared_error = 0.0\nsamples = 1\nvalue = 430.589"] ;
363 -> 367 ;
368 [label="Time on App <= 11.028\nsquared_error = 293.688\nsamples = 10\nvalue = 475.733"] ;
362 -> 368 ;
369 [label="Time on App <= 10.567\nsquared_error = 98.66\nsamples = 7\nvalue = 468.341"] ;
368 -> 369 ;
370 [label="Time on Website <= 36.308\nsquared_error = 23.304\nsamples = 2\nvalue = 456.285"] ;
369 -> 370 ;
371 [label="squared_error = 0.0\nsamples = 1\nvalue = 451.457"] ;
370 -> 371 ;
372 [label="squared_error = 0.0\nsamples = 1\nvalue = 461.112"] ;
370 -> 372 ;
373 [label="Time on App <= 10.833\nsquared_error = 47.408\nsamples = 5\nvalue = 473.163"] ;
369 -> 373 ;
374 [label="Length of Membership <= 3.782\nsquared_error = 13.512\nsamples = 2\nvalue = 479.867"] ;
373 -> 374 ;
375 [label="squared_error = 0.0\nsamples = 1\nvalue = 483.543"] ;
374 -> 375 ;
376 [label="squared_error = 0.0\nsamples = 1\nvalue = 476.191"] ;
374 -> 376 ;
377 [label="Time on App <= 10.904\nsquared_error = 20.066\nsamples = 3\nvalue = 468.694"] ;
373 -> 377 ;
378 [label="Length of Membership <= 3.831\nsquared_error = 0.127\nsamples = 2\nvalue = 465.533"] ;
377 -> 378 ;
379 [label="squared_error = 0.0\nsamples = 1\nvalue = 465.177"] ;
378 -> 379 ;
380 [label="squared_error = 0.0\nsamples = 1\nvalue = 465.889"] ;
378 -> 380 ;
381 [label="squared_error = 0.0\nsamples = 1\nvalue = 475.015"] ;
377 -> 381 ;
382 [label="Time on Website <= 37.024\nsquared_error = 323.717\nsamples = 3\nvalue = 492.982"] ;
368 -> 382 ;
383 [label="squared_error = 0.0\nsamples = 1\nvalue = 467.801"] ;
382 -> 383 ;
384 [label="Time on Website <= 37.819\nsquared_error = 10.004\nsamples = 2\nvalue = 505.573"] ;
382 -> 384 ;
385 [label="squared_error = 0.0\nsamples = 1\nvalue = 508.736"] ;
384 -> 385 ;
386 [label="squared_error = 0.0\nsamples = 1\nvalue = 502.41"] ;
384 -> 386 ;
387 [label="Session Length <= 32.646\nsquared_error = 523.42\nsamples = 28\nvalue = 516.281"] ;
361 -> 387 ;
388 [label="Time on App <= 11.779\nsquared_error = 278.333\nsamples = 10\nvalue = 492.39"] ;
387 -> 388 ;
389 [label="squared_error = 0.0\nsamples = 1\nvalue = 448.933"] ;
388 -> 389 ;
390 [label="Length of Membership <= 3.847\nsquared_error = 76.116\nsamples = 9\nvalue = 497.218"] ;
388 -> 390 ;
391 [label="Time on App <= 12.657\nsquared_error = 67.516\nsamples = 7\nvalue = 494.637"] ;
390 -> 391 ;
392 [label="Length of Membership <= 3.639\nsquared_error = 8.694\nsamples = 5\nvalue = 490.767"] ;
391 -> 392 ;
393 [label="squared_error = 0.0\nsamples = 1\nvalue = 485.923"] ;
392 -> 393 ;
394 [label="Time on Website <= 36.549\nsquared_error = 3.537\nsamples = 4\nvalue = 491.977"] ;
392 -> 394 ;
395 [label="squared_error = 0.0\nsamples = 1\nvalue = 494.552"] ;
394 -> 395 ;
396 [label="Time on Website <= 38.658\nsquared_error = 1.77\nsamples = 3\nvalue = 491.119"] ;
394 -> 396 ;
397 [label="Time on App <= 12.001\nsquared_error = 1.374\nsamples = 2\nvalue = 491.773"] ;
396 -> 397 ;
398 [label="squared_error = 0.0\nsamples = 1\nvalue = 490.6"] ;
397 -> 398 ;
399 [label="squared_error = 0.0\nsamples = 1\nvalue = 492.945"] ;
397 -> 399 ;
400 [label="squared_error = -0.0\nsamples = 1\nvalue = 489.812"] ;
396 -> 400 ;
401 [label="Length of Membership <= 3.657\nsquared_error = 83.49\nsamples = 2\nvalue = 504.313"] ;
391 -> 401 ;
402 [label="squared_error = 0.0\nsamples = 1\nvalue = 495.176"] ;
401 -> 402 ;
403 [label="squared_error = 0.0\nsamples = 1\nvalue = 513.451"] ;
401 -> 403 ;
404 [label="Session Length <= 32.447\nsquared_error = 1.296\nsamples = 2\nvalue = 506.252"] ;
390 -> 404 ;
405 [label="squared_error = 0.0\nsamples = 1\nvalue = 507.39"] ;
404 -> 405 ;
406 [label="squared_error = 0.0\nsamples = 1\nvalue = 505.113"] ;
404 -> 406 ;
407 [label="Time on App <= 11.72\nsquared_error = 166.298\nsamples = 18\nvalue = 529.554"] ;
387 -> 407 ;
408 [label="Time on App <= 11.528\nsquared_error = 30.206\nsamples = 5\nvalue = 515.351"] ;
407 -> 408 ;
409 [label="squared_error = 0.0\nsamples = 1\nvalue = 506.424"] ;
408 -> 409 ;
410 [label="Length of Membership <= 3.659\nsquared_error = 12.852\nsamples = 4\nvalue = 517.583"] ;
408 -> 410 ;
411 [label="squared_error = 0.0\nsamples = 1\nvalue = 512.825"] ;
410 -> 411 ;
412 [label="Length of Membership <= 3.958\nsquared_error = 7.075\nsamples = 3\nvalue = 519.169"] ;
410 -> 412 ;
413 [label="Time on Website <= 36.93\nsquared_error = 2.245\nsamples = 2\nvalue = 520.839"] ;
412 -> 413 ;
414 [label="squared_error = 0.0\nsamples = 1\nvalue = 519.341"] ;
413 -> 414 ;
415 [label="squared_error = 0.0\nsamples = 1\nvalue = 522.337"] ;
413 -> 415 ;
416 [label="squared_error = -0.0\nsamples = 1\nvalue = 515.829"] ;
412 -> 416 ;
417 [label="Session Length <= 33.931\nsquared_error = 111.217\nsamples = 13\nvalue = 535.017"] ;
407 -> 417 ;
418 [label="Length of Membership <= 3.725\nsquared_error = 73.371\nsamples = 11\nvalue = 532.063"] ;
417 -> 418 ;
419 [label="Length of Membership <= 3.665\nsquared_error = 15.729\nsamples = 3\nvalue = 522.993"] ;
418 -> 419 ;
420 [label="Session Length <= 33.698\nsquared_error = 2.398\nsamples = 2\nvalue = 520.335"] ;
419 -> 420 ;
421 [label="squared_error = 0.0\nsamples = 1\nvalue = 521.884"] ;
420 -> 421 ;
422 [label="squared_error = 0.0\nsamples = 1\nvalue = 518.786"] ;
420 -> 422 ;
423 [label="squared_error = 0.0\nsamples = 1\nvalue = 528.309"] ;
419 -> 423 ;
424 [label="Time on App <= 11.935\nsquared_error = 52.569\nsamples = 8\nvalue = 535.464"] ;
418 -> 424 ;
425 [label="squared_error = 0.0\nsamples = 1\nvalue = 552.94"] ;
424 -> 425 ;
426 [label="Time on Website <= 36.813\nsquared_error = 10.215\nsamples = 7\nvalue = 532.968"] ;
424 -> 426 ;
427 [label="Time on Website <= 35.89\nsquared_error = 0.024\nsamples = 3\nvalue = 529.321"] ;
426 -> 427 ;
428 [label="squared_error = 0.0\nsamples = 1\nvalue = 529.538"] ;
427 -> 428 ;
429 [label="Session Length <= 33.093\nsquared_error = 0.0\nsamples = 2\nvalue = 529.212"] ;
427 -> 429 ;
430 [label="squared_error = 0.0\nsamples = 1\nvalue = 529.23"] ;
429 -> 430 ;
431 [label="squared_error = -0.0\nsamples = 1\nvalue = 529.195"] ;
429 -> 431 ;
432 [label="Time on Website <= 37.822\nsquared_error = 0.402\nsamples = 4\nvalue = 535.703"] ;
426 -> 432 ;
433 [label="Length of Membership <= 3.839\nsquared_error = 0.124\nsamples = 2\nvalue = 535.129"] ;
432 -> 433 ;
434 [label="squared_error = 0.0\nsamples = 1\nvalue = 535.481"] ;
433 -> 434 ;
435 [label="squared_error = 0.0\nsamples = 1\nvalue = 534.777"] ;
433 -> 435 ;
436 [label="Session Length <= 33.303\nsquared_error = 0.021\nsamples = 2\nvalue = 536.277"] ;
432 -> 436 ;
437 [label="squared_error = 0.0\nsamples = 1\nvalue = 536.423"] ;
436 -> 437 ;
438 [label="squared_error = -0.0\nsamples = 1\nvalue = 536.131"] ;
436 -> 438 ;
439 [label="Session Length <= 34.318\nsquared_error = 7.52\nsamples = 2\nvalue = 551.261"] ;
417 -> 439 ;
440 [label="squared_error = 0.0\nsamples = 1\nvalue = 548.519"] ;
439 -> 440 ;
441 [label="squared_error = -0.0\nsamples = 1\nvalue = 554.003"] ;
439 -> 441 ;
442 [label="Session Length <= 33.022\nsquared_error = 1009.304\nsamples = 69\nvalue = 543.852"] ;
360 -> 442 ;
443 [label="Time on App <= 11.348\nsquared_error = 677.107\nsamples = 30\nvalue = 522.49"] ;
442 -> 443 ;
444 [label="Time on App <= 11.002\nsquared_error = 231.697\nsamples = 8\nvalue = 493.767"] ;
443 -> 444 ;
445 [label="Session Length <= 32.891\nsquared_error = 120.712\nsamples = 4\nvalue = 483.284"] ;
444 -> 445 ;
446 [label="Length of Membership <= 4.267\nsquared_error = 7.352\nsamples = 3\nvalue = 477.088"] ;
445 -> 446 ;
447 [label="squared_error = 0.0\nsamples = 1\nvalue = 473.36"] ;
446 -> 447 ;
448 [label="Session Length <= 32.503\nsquared_error = 0.61\nsamples = 2\nvalue = 478.951"] ;
446 -> 448 ;
449 [label="squared_error = 0.0\nsamples = 1\nvalue = 479.732"] ;
448 -> 449 ;
450 [label="squared_error = -0.0\nsamples = 1\nvalue = 478.17"] ;
448 -> 450 ;
451 [label="squared_error = -0.0\nsamples = 1\nvalue = 501.874"] ;
445 -> 451 ;
452 [label="Length of Membership <= 4.117\nsquared_error = 122.896\nsamples = 4\nvalue = 504.25"] ;
444 -> 452 ;
453 [label="squared_error = 0.0\nsamples = 1\nvalue = 487.548"] ;
452 -> 453 ;
454 [label="Session Length <= 32.596\nsquared_error = 39.869\nsamples = 3\nvalue = 509.818"] ;
452 -> 454 ;
455 [label="Length of Membership <= 4.427\nsquared_error = 10.975\nsamples = 2\nvalue = 513.852"] ;
454 -> 455 ;
456 [label="squared_error = 0.0\nsamples = 1\nvalue = 510.539"] ;
455 -> 456 ;
457 [label="squared_error = 0.0\nsamples = 1\nvalue = 517.165"] ;
455 -> 457 ;
458 [label="squared_error = -0.0\nsamples = 1\nvalue = 501.749"] ;
454 -> 458 ;
459 [label="Time on Website <= 36.761\nsquared_error = 430.0\nsamples = 22\nvalue = 532.934"] ;
443 -> 459 ;
460 [label="Session Length <= 31.575\nsquared_error = 314.985\nsamples = 10\nvalue = 517.999"] ;
459 -> 460 ;
461 [label="Time on App <= 12.045\nsquared_error = 12.543\nsamples = 2\nvalue = 491.097"] ;
460 -> 461 ;
462 [label="squared_error = 0.0\nsamples = 1\nvalue = 494.639"] ;
461 -> 462 ;
463 [label="squared_error = 0.0\nsamples = 1\nvalue = 487.555"] ;
461 -> 463 ;
464 [label="Time on App <= 12.068\nsquared_error = 164.44\nsamples = 8\nvalue = 524.724"] ;
460 -> 464 ;
465 [label="Time on App <= 11.535\nsquared_error = 51.901\nsamples = 5\nvalue = 515.892"] ;
464 -> 465 ;
466 [label="squared_error = 0.0\nsamples = 1\nvalue = 528.934"] ;
465 -> 466 ;
467 [label="Session Length <= 32.739\nsquared_error = 11.729\nsamples = 4\nvalue = 512.632"] ;
465 -> 467 ;
468 [label="Time on Website <= 36.634\nsquared_error = 3.665\nsamples = 3\nvalue = 514.362"] ;
467 -> 468 ;
469 [label="Session Length <= 32.143\nsquared_error = 0.925\nsamples = 2\nvalue = 513.127"] ;
468 -> 469 ;
470 [label="squared_error = 0.0\nsamples = 1\nvalue = 512.166"] ;
469 -> 470 ;
471 [label="squared_error = 0.0\nsamples = 1\nvalue = 514.089"] ;
469 -> 471 ;
472 [label="squared_error = 0.0\nsamples = 1\nvalue = 516.832"] ;
468 -> 472 ;
473 [label="squared_error = -0.0\nsamples = 1\nvalue = 507.442"] ;
467 -> 473 ;
474 [label="Time on Website <= 36.485\nsquared_error = 5.341\nsamples = 3\nvalue = 539.444"] ;
464 -> 474 ;
475 [label="Time on App <= 12.334\nsquared_error = 0.001\nsamples = 2\nvalue = 537.81"] ;
474 -> 475 ;
476 [label="squared_error = 0.0\nsamples = 1\nvalue = 537.773"] ;
475 -> 476 ;
477 [label="squared_error = 0.0\nsamples = 1\nvalue = 537.846"] ;
475 -> 477 ;
478 [label="squared_error = 0.0\nsamples = 1\nvalue = 542.712"] ;
474 -> 478 ;
479 [label="Time on Website <= 38.763\nsquared_error = 185.055\nsamples = 12\nvalue = 545.38"] ;
459 -> 479 ;
480 [label="Time on App <= 12.447\nsquared_error = 124.536\nsamples = 11\nvalue = 542.841"] ;
479 -> 480 ;
481 [label="Length of Membership <= 4.883\nsquared_error = 57.593\nsamples = 8\nvalue = 539.034"] ;
480 -> 481 ;
482 [label="Time on Website <= 37.304\nsquared_error = 39.957\nsamples = 7\nvalue = 537.236"] ;
481 -> 482 ;
483 [label="Time on App <= 11.849\nsquared_error = 0.004\nsamples = 2\nvalue = 547.178"] ;
482 -> 483 ;
484 [label="squared_error = 0.0\nsamples = 1\nvalue = 547.244"] ;
483 -> 484 ;
485 [label="squared_error = -0.0\nsamples = 1\nvalue = 547.111"] ;
483 -> 485 ;
486 [label="Session Length <= 32.647\nsquared_error = 0.59\nsamples = 5\nvalue = 533.259"] ;
482 -> 486 ;
487 [label="Time on App <= 11.468\nsquared_error = 0.083\nsamples = 4\nvalue = 532.898"] ;
486 -> 487 ;
488 [label="squared_error = 0.0\nsamples = 1\nvalue = 533.397"] ;
487 -> 488 ;
489 [label="Time on Website <= 37.581\nsquared_error = 0.0\nsamples = 3\nvalue = 532.731"] ;
487 -> 489 ;
490 [label="squared_error = 0.0\nsamples = 1\nvalue = 532.752"] ;
489 -> 490 ;
491 [label="Length of Membership <= 4.554\nsquared_error = 0.0\nsamples = 2\nvalue = 532.721"] ;
489 -> 491 ;
492 [label="squared_error = 0.0\nsamples = 1\nvalue = 532.725"] ;
491 -> 492 ;
493 [label="squared_error = -0.0\nsamples = 1\nvalue = 532.717"] ;
491 -> 493 ;
494 [label="squared_error = -0.0\nsamples = 1\nvalue = 534.706"] ;
486 -> 494 ;
495 [label="squared_error = -0.0\nsamples = 1\nvalue = 551.62"] ;
481 -> 495 ;
496 [label="Session Length <= 32.16\nsquared_error = 161.313\nsamples = 3\nvalue = 552.994"] ;
480 -> 496 ;
497 [label="Length of Membership <= 4.552\nsquared_error = 8.701\nsamples = 2\nvalue = 544.176"] ;
496 -> 497 ;
498 [label="squared_error = 0.0\nsamples = 1\nvalue = 541.227"] ;
497 -> 498 ;
499 [label="squared_error = 0.0\nsamples = 1\nvalue = 547.126"] ;
497 -> 499 ;
500 [label="squared_error = -0.0\nsamples = 1\nvalue = 570.63"] ;
496 -> 500 ;
501 [label="squared_error = 0.0\nsamples = 1\nvalue = 573.306"] ;
479 -> 501 ;
502 [label="Time on App <= 11.268\nsquared_error = 643.782\nsamples = 39\nvalue = 560.284"] ;
442 -> 502 ;
503 [label="Length of Membership <= 4.267\nsquared_error = 352.832\nsamples = 9\nvalue = 528.688"] ;
502 -> 503 ;
504 [label="Time on App <= 10.873\nsquared_error = 86.082\nsamples = 5\nvalue = 516.744"] ;
503 -> 504 ;
505 [label="squared_error = 0.0\nsamples = 1\nvalue = 532.127"] ;
504 -> 505 ;
506 [label="Length of Membership <= 4.017\nsquared_error = 33.651\nsamples = 4\nvalue = 512.898"] ;
504 -> 506 ;
507 [label="squared_error = 0.0\nsamples = 1\nvalue = 505.12"] ;
506 -> 507 ;
508 [label="Session Length <= 33.503\nsquared_error = 17.976\nsamples = 3\nvalue = 515.491"] ;
506 -> 508 ;
509 [label="Time on App <= 11.065\nsquared_error = 2.561\nsamples = 2\nvalue = 512.639"] ;
508 -> 509 ;
510 [label="squared_error = 0.0\nsamples = 1\nvalue = 511.039"] ;
509 -> 510 ;
511 [label="squared_error = 0.0\nsamples = 1\nvalue = 514.24"] ;
509 -> 511 ;
512 [label="squared_error = -0.0\nsamples = 1\nvalue = 521.195"] ;
508 -> 512 ;
513 [label="Time on App <= 10.711\nsquared_error = 285.046\nsamples = 4\nvalue = 543.618"] ;
503 -> 513 ;
514 [label="Time on Website <= 36.96\nsquared_error = 37.664\nsamples = 2\nvalue = 527.378"] ;
513 -> 514 ;
515 [label="squared_error = 0.0\nsamples = 1\nvalue = 533.515"] ;
514 -> 515 ;
516 [label="squared_error = 0.0\nsamples = 1\nvalue = 521.241"] ;
514 -> 516 ;
517 [label="Length of Membership <= 4.738\nsquared_error = 4.946\nsamples = 2\nvalue = 559.858"] ;
513 -> 517 ;
518 [label="squared_error = 0.0\nsamples = 1\nvalue = 557.634"] ;
517 -> 518 ;
519 [label="squared_error = -0.0\nsamples = 1\nvalue = 562.082"] ;
517 -> 519 ;
520 [label="Time on App <= 11.827\nsquared_error = 341.725\nsamples = 30\nvalue = 569.763"] ;
502 -> 520 ;
521 [label="Time on App <= 11.393\nsquared_error = 146.117\nsamples = 13\nvalue = 556.731"] ;
520 -> 521 ;
522 [label="Time on App <= 11.356\nsquared_error = 9.089\nsamples = 2\nvalue = 571.732"] ;
521 -> 522 ;
523 [label="squared_error = 0.0\nsamples = 1\nvalue = 568.718"] ;
522 -> 523 ;
524 [label="squared_error = 0.0\nsamples = 1\nvalue = 574.747"] ;
522 -> 524 ;
525 [label="Length of Membership <= 4.689\nsquared_error = 122.675\nsamples = 11\nvalue = 554.004"] ;
521 -> 525 ;
526 [label="Time on App <= 11.595\nsquared_error = 77.765\nsamples = 10\nvalue = 551.724"] ;
525 -> 526 ;
527 [label="Length of Membership <= 4.133\nsquared_error = 24.038\nsamples = 5\nvalue = 544.762"] ;
526 -> 527 ;
528 [label="Session Length <= 34.332\nsquared_error = 2.599\nsamples = 2\nvalue = 539.438"] ;
527 -> 528 ;
529 [label="squared_error = 0.0\nsamples = 1\nvalue = 537.825"] ;
528 -> 529 ;
530 [label="squared_error = 0.0\nsamples = 1\nvalue = 541.05"] ;
528 -> 530 ;
531 [label="Session Length <= 33.2\nsquared_error = 6.832\nsamples = 3\nvalue = 548.311"] ;
527 -> 531 ;
532 [label="squared_error = 0.0\nsamples = 1\nvalue = 544.78"] ;
531 -> 532 ;
533 [label="Session Length <= 33.748\nsquared_error = 0.894\nsamples = 2\nvalue = 550.077"] ;
531 -> 533 ;
534 [label="squared_error = 0.0\nsamples = 1\nvalue = 549.132"] ;
533 -> 534 ;
535 [label="squared_error = 0.0\nsamples = 1\nvalue = 551.023"] ;
533 -> 535 ;
536 [label="Time on App <= 11.696\nsquared_error = 34.56\nsamples = 5\nvalue = 558.685"] ;
526 -> 536 ;
537 [label="Length of Membership <= 4.368\nsquared_error = 10.807\nsamples = 3\nvalue = 562.826"] ;
536 -> 537 ;
538 [label="squared_error = 0.0\nsamples = 1\nvalue = 567.475"] ;
537 -> 538 ;
539 [label="Length of Membership <= 4.519\nsquared_error = 0.003\nsamples = 2\nvalue = 560.502"] ;
537 -> 539 ;
540 [label="squared_error = 0.0\nsamples = 1\nvalue = 560.56"] ;
539 -> 540 ;
541 [label="squared_error = 0.0\nsamples = 1\nvalue = 560.444"] ;
539 -> 541 ;
542 [label="Time on App <= 11.76\nsquared_error = 5.888\nsamples = 2\nvalue = 552.474"] ;
536 -> 542 ;
543 [label="squared_error = 0.0\nsamples = 1\nvalue = 554.901"] ;
542 -> 543 ;
544 [label="squared_error = -0.0\nsamples = 1\nvalue = 550.048"] ;
542 -> 544 ;
545 [label="squared_error = 0.0\nsamples = 1\nvalue = 576.803"] ;
525 -> 545 ;
546 [label="Session Length <= 33.636\nsquared_error = 262.127\nsamples = 17\nvalue = 579.729"] ;
520 -> 546 ;
547 [label="Time on App <= 11.911\nsquared_error = 92.509\nsamples = 6\nvalue = 563.798"] ;
546 -> 547 ;
548 [label="squared_error = 0.0\nsamples = 1\nvalue = 577.273"] ;
547 -> 548 ;
549 [label="Session Length <= 33.279\nsquared_error = 67.433\nsamples = 5\nvalue = 561.103"] ;
547 -> 549 ;
550 [label="Session Length <= 33.052\nsquared_error = 12.23\nsamples = 3\nvalue = 556.613"] ;
549 -> 550 ;
551 [label="squared_error = 0.0\nsamples = 1\nvalue = 561.517"] ;
550 -> 551 ;
552 [label="Time on Website <= 36.318\nsquared_error = 0.314\nsamples = 2\nvalue = 554.162"] ;
550 -> 552 ;
553 [label="squared_error = 0.0\nsamples = 1\nvalue = 553.602"] ;
552 -> 553 ;
554 [label="squared_error = -0.0\nsamples = 1\nvalue = 554.722"] ;
552 -> 554 ;
555 [label="Time on App <= 12.307\nsquared_error = 74.637\nsamples = 2\nvalue = 567.838"] ;
549 -> 555 ;
556 [label="squared_error = 0.0\nsamples = 1\nvalue = 576.478"] ;
555 -> 556 ;
557 [label="squared_error = 0.0\nsamples = 1\nvalue = 559.199"] ;
555 -> 557 ;
558 [label="Length of Membership <= 4.37\nsquared_error = 140.724\nsamples = 11\nvalue = 588.418"] ;
546 -> 558 ;
559 [label="Length of Membership <= 4.186\nsquared_error = 60.379\nsamples = 9\nvalue = 583.986"] ;
558 -> 559 ;
560 [label="Session Length <= 33.983\nsquared_error = 57.349\nsamples = 5\nvalue = 580.023"] ;
559 -> 560 ;
561 [label="squared_error = 0.0\nsamples = 1\nvalue = 565.994"] ;
560 -> 561 ;
562 [label="Session Length <= 34.272\nsquared_error = 10.181\nsamples = 4\nvalue = 583.531"] ;
560 -> 562 ;
563 [label="squared_error = 0.0\nsamples = 1\nvalue = 578.986"] ;
562 -> 563 ;
564 [label="Length of Membership <= 4.045\nsquared_error = 4.397\nsamples = 3\nvalue = 585.046"] ;
562 -> 564 ;
565 [label="Time on App <= 12.18\nsquared_error = 0.263\nsamples = 2\nvalue = 583.593"] ;
564 -> 565 ;
566 [label="squared_error = 0.0\nsamples = 1\nvalue = 583.08"] ;
565 -> 566 ;
567 [label="squared_error = 0.0\nsamples = 1\nvalue = 584.106"] ;
565 -> 567 ;
568 [label="squared_error = -0.0\nsamples = 1\nvalue = 587.951"] ;
564 -> 568 ;
569 [label="Time on App <= 12.586\nsquared_error = 20.003\nsamples = 4\nvalue = 588.939"] ;
559 -> 569 ;
570 [label="Time on App <= 12.206\nsquared_error = 0.794\nsamples = 3\nvalue = 591.483"] ;
569 -> 570 ;
571 [label="squared_error = 0.0\nsamples = 1\nvalue = 592.688"] ;
570 -> 571 ;
572 [label="Session Length <= 33.9\nsquared_error = 0.101\nsamples = 2\nvalue = 590.88"] ;
570 -> 572 ;
573 [label="squared_error = 0.0\nsamples = 1\nvalue = 591.197"] ;
572 -> 573 ;
574 [label="squared_error = -0.0\nsamples = 1\nvalue = 590.563"] ;
572 -> 574 ;
575 [label="squared_error = 0.0\nsamples = 1\nvalue = 581.309"] ;
569 -> 575 ;
576 [label="Session Length <= 34.764\nsquared_error = 16.202\nsamples = 2\nvalue = 608.36"] ;
558 -> 576 ;
577 [label="squared_error = 0.0\nsamples = 1\nvalue = 612.385"] ;
576 -> 577 ;
578 [label="squared_error = 0.0\nsamples = 1\nvalue = 604.335"] ;
576 -> 578 ;
579 [label="Session Length <= 32.581\nsquared_error = 1069.539\nsamples = 32\nvalue = 589.618"] ;
359 -> 579 ;
580 [label="Time on App <= 13.383\nsquared_error = 638.548\nsamples = 10\nvalue = 558.321"] ;
579 -> 580 ;
581 [label="Length of Membership <= 4.109\nsquared_error = 107.269\nsamples = 6\nvalue = 542.013"] ;
580 -> 581 ;
582 [label="Session Length <= 32.406\nsquared_error = 23.029\nsamples = 4\nvalue = 536.064"] ;
581 -> 582 ;
583 [label="Time on App <= 13.188\nsquared_error = 1.176\nsamples = 2\nvalue = 531.851"] ;
582 -> 583 ;
584 [label="squared_error = 0.0\nsamples = 1\nvalue = 532.935"] ;
583 -> 584 ;
585 [label="squared_error = -0.0\nsamples = 1\nvalue = 530.767"] ;
583 -> 585 ;
586 [label="Length of Membership <= 3.734\nsquared_error = 9.379\nsamples = 2\nvalue = 540.278"] ;
582 -> 586 ;
587 [label="squared_error = 0.0\nsamples = 1\nvalue = 537.215"] ;
586 -> 587 ;
588 [label="squared_error = 0.0\nsamples = 1\nvalue = 543.34"] ;
586 -> 588 ;
589 [label="Length of Membership <= 4.282\nsquared_error = 63.435\nsamples = 2\nvalue = 553.91"] ;
581 -> 589 ;
590 [label="squared_error = 0.0\nsamples = 1\nvalue = 561.875"] ;
589 -> 590 ;
591 [label="squared_error = 0.0\nsamples = 1\nvalue = 545.945"] ;
589 -> 591 ;
592 [label="Session Length <= 32.244\nsquared_error = 438.092\nsamples = 4\nvalue = 582.784"] ;
580 -> 592 ;
593 [label="Length of Membership <= 4.573\nsquared_error = 154.837\nsamples = 2\nvalue = 601.156"] ;
592 -> 593 ;
594 [label="squared_error = 0.0\nsamples = 1\nvalue = 588.713"] ;
593 -> 594 ;
595 [label="squared_error = -0.0\nsamples = 1\nvalue = 613.599"] ;
593 -> 595 ;
596 [label="Time on App <= 14.01\nsquared_error = 46.293\nsamples = 2\nvalue = 564.412"] ;
592 -> 596 ;
597 [label="squared_error = 0.0\nsamples = 1\nvalue = 557.608"] ;
596 -> 597 ;
598 [label="squared_error = -0.0\nsamples = 1\nvalue = 571.216"] ;
596 -> 598 ;
599 [label="Time on App <= 13.215\nsquared_error = 617.85\nsamples = 22\nvalue = 603.844"] ;
579 -> 599 ;
600 [label="Length of Membership <= 4.344\nsquared_error = 255.93\nsamples = 8\nvalue = 583.403"] ;
599 -> 600 ;
601 [label="Session Length <= 32.959\nsquared_error = 45.194\nsamples = 6\nvalue = 574.805"] ;
600 -> 601 ;
602 [label="squared_error = 0.0\nsamples = 1\nvalue = 563.673"] ;
601 -> 602 ;
603 [label="Time on App <= 13.099\nsquared_error = 24.493\nsamples = 5\nvalue = 577.031"] ;
601 -> 603 ;
604 [label="Length of Membership <= 3.944\nsquared_error = 15.535\nsamples = 4\nvalue = 575.294"] ;
603 -> 604 ;
605 [label="Time on Website <= 36.95\nsquared_error = 1.909\nsamples = 3\nvalue = 573.126"] ;
604 -> 605 ;
606 [label="Time on Website <= 36.252\nsquared_error = 0.384\nsamples = 2\nvalue = 574.035"] ;
605 -> 606 ;
607 [label="squared_error = 0.0\nsamples = 1\nvalue = 573.416"] ;
606 -> 607 ;
608 [label="squared_error = 0.0\nsamples = 1\nvalue = 574.655"] ;
606 -> 608 ;
609 [label="squared_error = -0.0\nsamples = 1\nvalue = 571.307"] ;
605 -> 609 ;
610 [label="squared_error = 0.0\nsamples = 1\nvalue = 581.799"] ;
604 -> 610 ;
611 [label="squared_error = 0.0\nsamples = 1\nvalue = 583.978"] ;
603 -> 611 ;
612 [label="Length of Membership <= 4.634\nsquared_error = 0.861\nsamples = 2\nvalue = 609.2"] ;
600 -> 612 ;
613 [label="squared_error = 0.0\nsamples = 1\nvalue = 608.272"] ;
612 -> 613 ;
614 [label="squared_error = -0.0\nsamples = 1\nvalue = 610.128"] ;
612 -> 614 ;
615 [label="Time on Website <= 37.333\nsquared_error = 449.483\nsamples = 14\nvalue = 615.524"] ;
599 -> 615 ;
616 [label="Time on Website <= 36.406\nsquared_error = 309.076\nsamples = 9\nvalue = 604.868"] ;
615 -> 616 ;
617 [label="Time on Website <= 36.058\nsquared_error = 4.281\nsamples = 2\nvalue = 628.088"] ;
616 -> 617 ;
618 [label="squared_error = 0.0\nsamples = 1\nvalue = 626.019"] ;
617 -> 618 ;
619 [label="squared_error = -0.0\nsamples = 1\nvalue = 630.157"] ;
617 -> 619 ;
620 [label="Time on Website <= 36.596\nsquared_error = 198.098\nsamples = 7\nvalue = 598.233"] ;
616 -> 620 ;
621 [label="squared_error = 0.0\nsamples = 1\nvalue = 573.847"] ;
620 -> 621 ;
622 [label="Time on Website <= 36.949\nsquared_error = 115.483\nsamples = 6\nvalue = 602.298"] ;
620 -> 622 ;
623 [label="Time on Website <= 36.806\nsquared_error = 15.39\nsamples = 2\nvalue = 614.923"] ;
622 -> 623 ;
624 [label="squared_error = 0.0\nsamples = 1\nvalue = 611.0"] ;
623 -> 624 ;
625 [label="squared_error = 0.0\nsamples = 1\nvalue = 618.846"] ;
623 -> 625 ;
626 [label="Session Length <= 33.91\nsquared_error = 45.98\nsamples = 4\nvalue = 595.985"] ;
622 -> 626 ;
627 [label="Time on App <= 13.944\nsquared_error = 16.389\nsamples = 3\nvalue = 599.336"] ;
626 -> 627 ;
628 [label="Time on App <= 13.645\nsquared_error = 0.002\nsamples = 2\nvalue = 596.473"] ;
627 -> 628 ;
629 [label="squared_error = 0.0\nsamples = 1\nvalue = 596.517"] ;
628 -> 629 ;
630 [label="squared_error = 0.0\nsamples = 1\nvalue = 596.43"] ;
628 -> 630 ;
631 [label="squared_error = -0.0\nsamples = 1\nvalue = 605.061"] ;
627 -> 631 ;
632 [label="squared_error = -0.0\nsamples = 1\nvalue = 585.932"] ;
626 -> 632 ;
633 [label="Time on Website <= 37.81\nsquared_error = 129.866\nsamples = 5\nvalue = 634.706"] ;
615 -> 633 ;
634 [label="Session Length <= 33.324\nsquared_error = 37.451\nsamples = 4\nvalue = 639.704"] ;
633 -> 634 ;
635 [label="squared_error = 0.0\nsamples = 1\nvalue = 630.423"] ;
634 -> 635 ;
636 [label="Session Length <= 34.721\nsquared_error = 11.654\nsamples = 3\nvalue = 642.797"] ;
634 -> 636 ;
637 [label="Length of Membership <= 4.436\nsquared_error = 12.374\nsamples = 2\nvalue = 644.102"] ;
636 -> 637 ;
638 [label="squared_error = 0.0\nsamples = 1\nvalue = 647.619"] ;
637 -> 638 ;
639 [label="squared_error = 0.0\nsamples = 1\nvalue = 640.584"] ;
637 -> 639 ;
640 [label="squared_error = -0.0\nsamples = 1\nvalue = 640.188"] ;
636 -> 640 ;
641 [label="squared_error = -0.0\nsamples = 1\nvalue = 614.715"] ;
633 -> 641 ;
642 [label="Time on App <= 11.931\nsquared_error = 3240.095\nsamples = 29\nvalue = 625.034"] ;
358 -> 642 ;
643 [label="Length of Membership <= 5.789\nsquared_error = 1662.254\nsamples = 11\nvalue = 572.821"] ;
642 -> 643 ;
644 [label="Time on App <= 10.189\nsquared_error = 789.948\nsamples = 10\nvalue = 563.105"] ;
643 -> 644 ;
645 [label="Length of Membership <= 5.064\nsquared_error = 153.128\nsamples = 2\nvalue = 519.587"] ;
644 -> 645 ;
646 [label="squared_error = 0.0\nsamples = 1\nvalue = 531.962"] ;
645 -> 646 ;
647 [label="squared_error = 0.0\nsamples = 1\nvalue = 507.213"] ;
645 -> 647 ;
648 [label="Session Length <= 32.785\nsquared_error = 357.344\nsamples = 8\nvalue = 573.984"] ;
644 -> 648 ;
649 [label="Time on App <= 11.491\nsquared_error = 126.018\nsamples = 3\nvalue = 552.037"] ;
648 -> 649 ;
650 [label="Time on App <= 11.166\nsquared_error = 14.264\nsamples = 2\nvalue = 559.669"] ;
649 -> 650 ;
651 [label="squared_error = 0.0\nsamples = 1\nvalue = 555.893"] ;
650 -> 651 ;
652 [label="squared_error = 0.0\nsamples = 1\nvalue = 563.446"] ;
650 -> 652 ;
653 [label="squared_error = -0.0\nsamples = 1\nvalue = 536.772"] ;
649 -> 653 ;
654 [label="Time on App <= 11.155\nsquared_error = 33.721\nsamples = 5\nvalue = 587.153"] ;
648 -> 654 ;
655 [label="Time on App <= 10.957\nsquared_error = 10.505\nsamples = 2\nvalue = 580.977"] ;
654 -> 655 ;
656 [label="squared_error = 0.0\nsamples = 1\nvalue = 577.736"] ;
655 -> 656 ;
657 [label="squared_error = 0.0\nsamples = 1\nvalue = 584.218"] ;
655 -> 657 ;
658 [label="Length of Membership <= 5.3\nsquared_error = 6.826\nsamples = 3\nvalue = 591.269"] ;
654 -> 658 ;
659 [label="Length of Membership <= 5.071\nsquared_error = 0.002\nsamples = 2\nvalue = 593.117"] ;
658 -> 659 ;
660 [label="squared_error = 0.0\nsamples = 1\nvalue = 593.077"] ;
659 -> 660 ;
661 [label="squared_error = 0.0\nsamples = 1\nvalue = 593.156"] ;
659 -> 661 ;
662 [label="squared_error = -0.0\nsamples = 1\nvalue = 587.575"] ;
658 -> 662 ;
663 [label="squared_error = -0.0\nsamples = 1\nvalue = 669.987"] ;
643 -> 663 ;
664 [label="Session Length <= 32.351\nsquared_error = 1520.265\nsamples = 18\nvalue = 656.941"] ;
642 -> 664 ;
665 [label="Length of Membership <= 5.249\nsquared_error = 293.876\nsamples = 4\nvalue = 605.55"] ;
664 -> 665 ;
666 [label="Time on App <= 13.026\nsquared_error = 175.682\nsamples = 3\nvalue = 598.199"] ;
665 -> 666 ;
667 [label="Time on App <= 12.584\nsquared_error = 7.911\nsamples = 2\nvalue = 588.968"] ;
666 -> 667 ;
668 [label="squared_error = 0.0\nsamples = 1\nvalue = 586.156"] ;
667 -> 668 ;
669 [label="squared_error = -0.0\nsamples = 1\nvalue = 591.781"] ;
667 -> 669 ;
670 [label="squared_error = 0.0\nsamples = 1\nvalue = 616.66"] ;
666 -> 670 ;
671 [label="squared_error = 0.0\nsamples = 1\nvalue = 627.603"] ;
665 -> 671 ;
672 [label="Length of Membership <= 5.526\nsquared_error = 900.48\nsamples = 14\nvalue = 671.625"] ;
664 -> 672 ;
673 [label="Time on App <= 12.905\nsquared_error = 540.566\nsamples = 8\nvalue = 653.694"] ;
672 -> 673 ;
674 [label="Session Length <= 32.788\nsquared_error = 298.01\nsamples = 3\nvalue = 629.243"] ;
673 -> 674 ;
675 [label="squared_error = 0.0\nsamples = 1\nvalue = 604.841"] ;
674 -> 675 ;
676 [label="Session Length <= 33.242\nsquared_error = 0.433\nsamples = 2\nvalue = 641.444"] ;
674 -> 676 ;
677 [label="squared_error = 0.0\nsamples = 1\nvalue = 642.102"] ;
676 -> 677 ;
678 [label="squared_error = 0.0\nsamples = 1\nvalue = 640.786"] ;
676 -> 678 ;
679 [label="Time on App <= 14.096\nsquared_error = 112.166\nsamples = 5\nvalue = 668.364"] ;
673 -> 679 ;
680 [label="Time on Website <= 36.619\nsquared_error = 4.08\nsamples = 4\nvalue = 663.147"] ;
679 -> 680 ;
681 [label="squared_error = 0.0\nsamples = 1\nvalue = 666.126"] ;
680 -> 681 ;
682 [label="Time on App <= 13.939\nsquared_error = 1.496\nsamples = 3\nvalue = 662.154"] ;
680 -> 682 ;
683 [label="Session Length <= 32.79\nsquared_error = 0.003\nsamples = 2\nvalue = 663.018"] ;
682 -> 683 ;
684 [label="squared_error = 0.0\nsamples = 1\nvalue = 662.961"] ;
683 -> 684 ;
685 [label="squared_error = -0.0\nsamples = 1\nvalue = 663.075"] ;
683 -> 685 ;
686 [label="squared_error = 0.0\nsamples = 1\nvalue = 660.425"] ;
682 -> 686 ;
687 [label="squared_error = 0.0\nsamples = 1\nvalue = 689.236"] ;
679 -> 687 ;
688 [label="Time on App <= 12.558\nsquared_error = 380.124\nsamples = 6\nvalue = 695.532"] ;
672 -> 688 ;
689 [label="Length of Membership <= 6.121\nsquared_error = 103.63\nsamples = 2\nvalue = 673.984"] ;
688 -> 689 ;
690 [label="squared_error = 0.0\nsamples = 1\nvalue = 663.804"] ;
689 -> 690 ;
691 [label="squared_error = 0.0\nsamples = 1\nvalue = 684.163"] ;
689 -> 691 ;
692 [label="Time on Website <= 37.708\nsquared_error = 170.121\nsamples = 4\nvalue = 706.306"] ;
688 -> 692 ;
693 [label="Time on App <= 13.176\nsquared_error = 61.643\nsamples = 3\nvalue = 699.88"] ;
692 -> 693 ;
694 [label="Time on Website <= 36.934\nsquared_error = 16.072\nsamples = 2\nvalue = 704.926"] ;
693 -> 694 ;
695 [label="squared_error = 0.0\nsamples = 1\nvalue = 708.935"] ;
694 -> 695 ;
696 [label="squared_error = 0.0\nsamples = 1\nvalue = 700.917"] ;
694 -> 696 ;
697 [label="squared_error = -0.0\nsamples = 1\nvalue = 689.788"] ;
693 -> 697 ;
698 [label="squared_error = -0.0\nsamples = 1\nvalue = 725.585"] ;
692 -> 698 ;
}